digraph Tree {
0 [label="eqpdays <= 302.5000\nimpurity = 0.999995345343\nsamples = 31887", shape="box"] ;
1 [label="months <= 10.5000\nimpurity = 0.967515669328\nsamples = 12937", shape="box"] ;
0 -> 1 ;
2 [label="revenue <= 72.3850\nimpurity = 0.908640424432\nsamples = 5479", shape="box"] ;
1 -> 2 ;
3 [label="revenue <= 28.6400\nimpurity = 0.881140120439\nsamples = 4055", shape="box"] ;
2 -> 3 ;
4 [label="revenue <= 28.4650\nimpurity = 0.983578871229\nsamples = 591", shape="box"] ;
3 -> 4 ;
5 [label="marryyes <= 0.5000\nimpurity = 0.980419030366\nsamples = 584", shape="box"] ;
4 -> 5 ;
6 [label="impurity = 0.9978\nsamples = 345\nvalue = [ 182.  163.]", shape="box"] ;
5 -> 6 ;
7 [label="impurity = 0.9238\nsamples = 239\nvalue = [ 158.   81.]", shape="box"] ;
5 -> 7 ;
8 [label="impurity = 0.0000\nsamples = 7\nvalue = [ 0.  7.]", shape="box"] ;
4 -> 8 ;
9 [label="creditcd <= 0.5000\nimpurity = 0.853508294819\nsamples = 3464", shape="box"] ;
3 -> 9 ;
10 [label="outcalls <= 1.5000\nimpurity = 0.90590171708\nsamples = 1453", shape="box"] ;
9 -> 10 ;
11 [label="impurity = 0.9752\nsamples = 211\nvalue = [ 125.   86.]", shape="box"] ;
10 -> 11 ;
12 [label="impurity = 0.8894\nsamples = 1242\nvalue = [ 861.  381.]", shape="box"] ;
10 -> 12 ;
13 [label="eqpdays <= 215.5000\nimpurity = 0.807512919745\nsamples = 2011", shape="box"] ;
9 -> 13 ;
14 [label="impurity = 0.8666\nsamples = 815\nvalue = [ 580.  235.]", shape="box"] ;
13 -> 14 ;
15 [label="impurity = 0.7600\nsamples = 1196\nvalue = [ 933.  263.]", shape="box"] ;
13 -> 15 ;
16 [label="retcalls <= 0.5000\nimpurity = 0.966429344377\nsamples = 1424", shape="box"] ;
2 -> 16 ;
17 [label="eqpdays <= 135.5000\nimpurity = 0.960822105037\nsamples = 1388", shape="box"] ;
16 -> 17 ;
18 [label="incalls <= 6.5000\nimpurity = 0.993002385528\nsamples = 315", shape="box"] ;
17 -> 18 ;
19 [label="impurity = 0.9799\nsamples = 96\nvalue = [ 40.  56.]", shape="box"] ;
18 -> 19 ;
20 [label="impurity = 0.9665\nsamples = 219\nvalue = [ 133.   86.]", shape="box"] ;
18 -> 20 ;
21 [label="revenue <= 73.1850\nimpurity = 0.946274115331\nsamples = 1073", shape="box"] ;
17 -> 21 ;
22 [label="impurity = 0.8631\nsamples = 21\nvalue = [  6.  15.]", shape="box"] ;
21 -> 22 ;
23 [label="impurity = 0.9405\nsamples = 1052\nvalue = [ 676.  376.]", shape="box"] ;
21 -> 23 ;
24 [label="incalls <= 7.5000\nimpurity = 0.852405178649\nsamples = 36", shape="box"] ;
16 -> 24 ;
25 [label="impurity = 0.0000\nsamples = 10\nvalue = [  0.  10.]", shape="box"] ;
24 -> 25 ;
26 [label="eqpdays <= 224.0000\nimpurity = 0.961236604723\nsamples = 26", shape="box"] ;
24 -> 26 ;
27 [label="impurity = 0.8865\nsamples = 23\nvalue = [  7.  16.]", shape="box"] ;
26 -> 27 ;
28 [label="impurity = 0.0000\nsamples = 3\nvalue = [ 3.  0.]", shape="box"] ;
26 -> 28 ;
29 [label="months <= 15.5000\nimpurity = 0.991558523685\nsamples = 7458", shape="box"] ;
1 -> 29 ;
30 [label="eqpdays <= 56.5000\nimpurity = 0.988122815464\nsamples = 2388", shape="box"] ;
29 -> 30 ;
31 [label="retcalls <= 0.5000\nimpurity = 0.997306966428\nsamples = 573", shape="box"] ;
30 -> 31 ;
32 [label="outcalls <= 3.1650\nimpurity = 0.993065764893\nsamples = 541", shape="box"] ;
31 -> 32 ;
33 [label="impurity = 0.9457\nsamples = 55\nvalue = [ 20.  35.]", shape="box"] ;
32 -> 33 ;
34 [label="impurity = 0.9858\nsamples = 486\nvalue = [ 277.  209.]", shape="box"] ;
32 -> 34 ;
35 [label="eqpdays <= 47.5000\nimpurity = 0.757878462538\nsamples = 32", shape="box"] ;
31 -> 35 ;
36 [label="impurity = 0.6052\nsamples = 27\nvalue = [  4.  23.]", shape="box"] ;
35 -> 36 ;
37 [label="impurity = 0.9710\nsamples = 5\nvalue = [ 3.  2.]", shape="box"] ;
35 -> 37 ;
38 [label="months <= 12.5000\nimpurity = 0.974385605252\nsamples = 1815", shape="box"] ;
30 -> 38 ;
39 [label="incalls <= 5.5000\nimpurity = 0.943024565483\nsamples = 874", shape="box"] ;
38 -> 39 ;
40 [label="impurity = 0.8872\nsamples = 469\nvalue = [ 143.  326.]", shape="box"] ;
39 -> 40 ;
41 [label="impurity = 0.9836\nsamples = 405\nvalue = [ 172.  233.]", shape="box"] ;
39 -> 41 ;
42 [label="revenue <= 133.7050\nimpurity = 0.992321427445\nsamples = 941", shape="box"] ;
38 -> 42 ;
43 [label="impurity = 0.9966\nsamples = 848\nvalue = [ 395.  453.]", shape="box"] ;
42 -> 43 ;
44 [label="impurity = 0.8691\nsamples = 93\nvalue = [ 27.  66.]", shape="box"] ;
42 -> 44 ;
45 [label="retcalls <= 0.5000\nimpurity = 0.965015592193\nsamples = 5070", shape="box"] ;
29 -> 45 ;
46 [label="months <= 23.5000\nimpurity = 0.954903551378\nsamples = 4696", shape="box"] ;
45 -> 46 ;
47 [label="incalls <= 0.8350\nimpurity = 0.975246421293\nsamples = 2355", shape="box"] ;
46 -> 47 ;
48 [label="impurity = 0.9979\nsamples = 533\nvalue = [ 281.  252.]", shape="box"] ;
47 -> 48 ;
49 [label="impurity = 0.9639\nsamples = 1822\nvalue = [ 1114.   708.]", shape="box"] ;
47 -> 49 ;
50 [label="eqpdays <= 115.5000\nimpurity = 0.928075349876\nsamples = 2341", shape="box"] ;
46 -> 50 ;
51 [label="impurity = 0.8867\nsamples = 946\nvalue = [ 658.  288.]", shape="box"] ;
50 -> 51 ;
52 [label="impurity = 0.9506\nsamples = 1395\nvalue = [ 879.  516.]", shape="box"] ;
50 -> 52 ;
53 [label="incalls <= 11.5000\nimpurity = 0.983766511888\nsamples = 374", shape="box"] ;
45 -> 53 ;
54 [label="eqpdays <= 296.5000\nimpurity = 0.94837312474\nsamples = 267", shape="box"] ;
53 -> 54 ;
55 [label="impurity = 0.9548\nsamples = 261\nvalue = [  98.  163.]", shape="box"] ;
54 -> 55 ;
56 [label="impurity = 0.0000\nsamples = 6\nvalue = [ 0.  6.]", shape="box"] ;
54 -> 56 ;
57 [label="marryyes <= 0.5000\nimpurity = 0.985777009112\nsamples = 107", shape="box"] ;
53 -> 57 ;
58 [label="impurity = 1.0000\nsamples = 84\nvalue = [ 42.  42.]", shape="box"] ;
57 -> 58 ;
59 [label="impurity = 0.6666\nsamples = 23\nvalue = [ 19.   4.]", shape="box"] ;
57 -> 59 ;
60 [label="months <= 12.5000\nimpurity = 0.985804306231\nsamples = 18950", shape="box"] ;
0 -> 60 ;
61 [label="retcalls <= 0.5000\nimpurity = 0.940206126881\nsamples = 3795", shape="box"] ;
60 -> 61 ;
62 [label="outcalls <= 3.8350\nimpurity = 0.944785505583\nsamples = 3707", shape="box"] ;
61 -> 62 ;
63 [label="eqpdays <= 315.5000\nimpurity = 0.906552658097\nsamples = 1354", shape="box"] ;
62 -> 63 ;
64 [label="outcalls <= 1.8350\nimpurity = 0.970486294847\nsamples = 253", shape="box"] ;
63 -> 64 ;
65 [label="impurity = 0.9471\nsamples = 208\nvalue = [  76.  132.]", shape="box"] ;
64 -> 65 ;
66 [label="impurity = 0.9911\nsamples = 45\nvalue = [ 25.  20.]", shape="box"] ;
64 -> 66 ;
67 [label="months <= 11.5000\nimpurity = 0.886446676957\nsamples = 1101", shape="box"] ;
63 -> 67 ;
68 [label="impurity = 0.8182\nsamples = 566\nvalue = [ 144.  422.]", shape="box"] ;
67 -> 68 ;
69 [label="impurity = 0.9402\nsamples = 535\nvalue = [ 191.  344.]", shape="box"] ;
67 -> 69 ;
70 [label="outcalls <= 100.5000\nimpurity = 0.962096172676\nsamples = 2353", shape="box"] ;
62 -> 70 ;
71 [label="outcalls <= 6.5000\nimpurity = 0.957693424919\nsamples = 2274", shape="box"] ;
70 -> 71 ;
72 [label="impurity = 0.9987\nsamples = 257\nvalue = [ 123.  134.]", shape="box"] ;
71 -> 72 ;
73 [label="impurity = 0.9482\nsamples = 2017\nvalue = [  740.  1277.]", shape="box"] ;
71 -> 73 ;
74 [label="revenue <= 285.1200\nimpurity = 0.985969027451\nsamples = 79", shape="box"] ;
70 -> 74 ;
75 [label="impurity = 0.9920\nsamples = 76\nvalue = [ 42.  34.]", shape="box"] ;
74 -> 75 ;
76 [label="impurity = 0.0000\nsamples = 3\nvalue = [ 3.  0.]", shape="box"] ;
74 -> 76 ;
77 [label="outcalls <= 41.1650\nimpurity = 0.5435644432\nsamples = 88", shape="box"] ;
61 -> 77 ;
78 [label="outcalls <= 15.0000\nimpurity = 0.435613373487\nsamples = 78", shape="box"] ;
77 -> 78 ;
79 [label="outcalls <= 14.3350\nimpurity = 0.556421567288\nsamples = 54", shape="box"] ;
78 -> 79 ;
80 [label="impurity = 0.5095\nsamples = 53\nvalue = [  6.  47.]", shape="box"] ;
79 -> 80 ;
81 [label="impurity = 0.0000\nsamples = 1\nvalue = [ 1.  0.]", shape="box"] ;
79 -> 81 ;
82 [label="impurity = 0.0000\nsamples = 24\nvalue = [  0.  24.]", shape="box"] ;
78 -> 82 ;
83 [label="eqpdays <= 329.0000\nimpurity = 0.970950594455\nsamples = 10", shape="box"] ;
77 -> 83 ;
84 [label="impurity = 0.0000\nsamples = 3\nvalue = [ 3.  0.]", shape="box"] ;
83 -> 84 ;
85 [label="incalls <= 4.3350\nimpurity = 0.591672778582\nsamples = 7", shape="box"] ;
83 -> 85 ;
86 [label="impurity = 1.0000\nsamples = 2\nvalue = [ 1.  1.]", shape="box"] ;
85 -> 86 ;
87 [label="impurity = 0.0000\nsamples = 5\nvalue = [ 0.  5.]", shape="box"] ;
85 -> 87 ;
88 [label="retcalls <= 0.5000\nimpurity = 0.992254365007\nsamples = 15155", shape="box"] ;
60 -> 88 ;
89 [label="webcap <= 0.5000\nimpurity = 0.994067966323\nsamples = 14544", shape="box"] ;
88 -> 89 ;
90 [label="revenue <= 2.4550\nimpurity = 0.969799063986\nsamples = 2668", shape="box"] ;
89 -> 90 ;
91 [label="impurity = 0.0000\nsamples = 11\nvalue = [ 11.   0.]", shape="box"] ;
90 -> 91 ;
92 [label="incalls <= 1.8350\nimpurity = 0.968293363184\nsamples = 2657", shape="box"] ;
90 -> 92 ;
93 [label="impurity = 0.9530\nsamples = 1860\nvalue = [  694.  1166.]", shape="box"] ;
92 -> 93 ;
94 [label="impurity = 0.9922\nsamples = 797\nvalue = [ 357.  440.]", shape="box"] ;
92 -> 94 ;
95 [label="incalls <= 0.8350\nimpurity = 0.996933846089\nsamples = 11876", shape="box"] ;
89 -> 95 ;
96 [label="revenue <= 48.7000\nimpurity = 0.991314899137\nsamples = 5355", shape="box"] ;
95 -> 96 ;
97 [label="impurity = 0.9956\nsamples = 3786\nvalue = [ 1746.  2040.]", shape="box"] ;
96 -> 97 ;
98 [label="impurity = 0.9747\nsamples = 1569\nvalue = [ 638.  931.]", shape="box"] ;
96 -> 98 ;
99 [label="months <= 33.5000\nimpurity = 0.999406721111\nsamples = 6521", shape="box"] ;
95 -> 99 ;
100 [label="impurity = 0.9983\nsamples = 5855\nvalue = [ 2786.  3069.]", shape="box"] ;
99 -> 100 ;
101 [label="impurity = 0.9850\nsamples = 666\nvalue = [ 381.  285.]", shape="box"] ;
99 -> 101 ;
102 [label="marryyes <= 0.5000\nimpurity = 0.874588231346\nsamples = 611", shape="box"] ;
88 -> 102 ;
103 [label="revenue <= 92.2150\nimpurity = 0.820986878032\nsamples = 402", shape="box"] ;
102 -> 103 ;
104 [label="revenue <= 82.2350\nimpurity = 0.793391716752\nsamples = 364", shape="box"] ;
103 -> 104 ;
105 [label="impurity = 0.8056\nsamples = 353\nvalue = [  87.  266.]", shape="box"] ;
104 -> 105 ;
106 [label="impurity = 0.0000\nsamples = 11\nvalue = [  0.  11.]", shape="box"] ;
104 -> 106 ;
107 [label="incalls <= 1.1650\nimpurity = 0.981940786864\nsamples = 38", shape="box"] ;
103 -> 107 ;
108 [label="impurity = 0.5033\nsamples = 9\nvalue = [ 1.  8.]", shape="box"] ;
107 -> 108 ;
109 [label="impurity = 0.9991\nsamples = 29\nvalue = [ 15.  14.]", shape="box"] ;
107 -> 109 ;
110 [label="outcalls <= 42.5000\nimpurity = 0.949452015388\nsamples = 209", shape="box"] ;
102 -> 110 ;
111 [label="revenue <= 10.9750\nimpurity = 0.966501093889\nsamples = 191", shape="box"] ;
110 -> 111 ;
112 [label="impurity = 0.5917\nsamples = 14\nvalue = [  2.  12.]", shape="box"] ;
111 -> 112 ;
113 [label="impurity = 0.9778\nsamples = 177\nvalue = [  73.  104.]", shape="box"] ;
111 -> 113 ;
114 [label="eqpdays <= 367.5000\nimpurity = 0.503258334776\nsamples = 18", shape="box"] ;
110 -> 114 ;
115 [label="impurity = 0.9183\nsamples = 3\nvalue = [ 2.  1.]", shape="box"] ;
114 -> 115 ;
116 [label="impurity = 0.0000\nsamples = 15\nvalue = [  0.  15.]", shape="box"] ;
114 -> 116 ;
}